FANN_FLO_2.1
num_layers=3
learning_rate=0.700000
connection_rate=1.000000
network_type=0
learning_momentum=0.000000
training_algorithm=2
train_error_function=1
train_stop_function=0
cascade_output_change_fraction=0.010000
quickprop_decay=-0.000100
quickprop_mu=1.750000
rprop_increase_factor=1.200000
rprop_decrease_factor=0.500000
rprop_delta_min=0.000000
rprop_delta_max=50.000000
rprop_delta_zero=0.100000
cascade_output_stagnation_epochs=12
cascade_candidate_change_fraction=0.010000
cascade_candidate_stagnation_epochs=12
cascade_max_out_epochs=150
cascade_min_out_epochs=50
cascade_max_cand_epochs=150
cascade_min_cand_epochs=50
cascade_num_candidate_groups=2
bit_fail_limit=3.49999999999999977796e-01
cascade_candidate_limit=1.00000000000000000000e+03
cascade_weight_multiplier=4.00000000000000022204e-01
cascade_activation_functions_count=10
cascade_activation_functions=3 5 7 8 10 11 14 15 16 17 
cascade_activation_steepnesses_count=4
cascade_activation_steepnesses=2.50000000000000000000e-01 5.00000000000000000000e-01 7.50000000000000000000e-01 1.00000000000000000000e+00 
layer_sizes=44 11 2 
scale_included=0
neurons (num_inputs, activation_function, activation_steepness)=(0, 0, 0.00000000000000000000e+00) (0, 0, 0.00000000000000000000e+00) (0, 0, 0.00000000000000000000e+00) (0, 0, 0.00000000000000000000e+00) (0, 0, 0.00000000000000000000e+00) (0, 0, 0.00000000000000000000e+00) (0, 0, 0.00000000000000000000e+00) (0, 0, 0.00000000000000000000e+00) (0, 0, 0.00000000000000000000e+00) (0, 0, 0.00000000000000000000e+00) (0, 0, 0.00000000000000000000e+00) (0, 0, 0.00000000000000000000e+00) (0, 0, 0.00000000000000000000e+00) (0, 0, 0.00000000000000000000e+00) (0, 0, 0.00000000000000000000e+00) (0, 0, 0.00000000000000000000e+00) (0, 0, 0.00000000000000000000e+00) (0, 0, 0.00000000000000000000e+00) (0, 0, 0.00000000000000000000e+00) (0, 0, 0.00000000000000000000e+00) (0, 0, 0.00000000000000000000e+00) (0, 0, 0.00000000000000000000e+00) (0, 0, 0.00000000000000000000e+00) (0, 0, 0.00000000000000000000e+00) (0, 0, 0.00000000000000000000e+00) (0, 0, 0.00000000000000000000e+00) (0, 0, 0.00000000000000000000e+00) (0, 0, 0.00000000000000000000e+00) (0, 0, 0.00000000000000000000e+00) (0, 0, 0.00000000000000000000e+00) (0, 0, 0.00000000000000000000e+00) (0, 0, 0.00000000000000000000e+00) (0, 0, 0.00000000000000000000e+00) (0, 0, 0.00000000000000000000e+00) (0, 0, 0.00000000000000000000e+00) (0, 0, 0.00000000000000000000e+00) (0, 0, 0.00000000000000000000e+00) (0, 0, 0.00000000000000000000e+00) (0, 0, 0.00000000000000000000e+00) (0, 0, 0.00000000000000000000e+00) (0, 0, 0.00000000000000000000e+00) (0, 0, 0.00000000000000000000e+00) (0, 0, 0.00000000000000000000e+00) (0, 0, 0.00000000000000000000e+00) (44, 4, 5.00000000000000000000e-01) (44, 4, 5.00000000000000000000e-01) (44, 4, 5.00000000000000000000e-01) (44, 4, 5.00000000000000000000e-01) (44, 4, 5.00000000000000000000e-01) (44, 4, 5.00000000000000000000e-01) (44, 4, 5.00000000000000000000e-01) (44, 4, 5.00000000000000000000e-01) (44, 4, 5.00000000000000000000e-01) (44, 4, 5.00000000000000000000e-01) (0, 0, 0.00000000000000000000e+00) (11, 6, 5.00000000000000000000e-01) (0, 6, 0.00000000000000000000e+00) 
connections (connected_to_neuron, weight)=(0, -2.98337564811257379915e+02) (1, 1.47647770239332999154e+03) (2, 6.92419469381662433527e-01) (3, -1.50000000000000000000e+03) (4, -1.50000000000000000000e+03) (5, 4.74321369067491161786e+02) (6, -1.38353475741603256211e+03) (7, -9.68027650058022345547e+02) (8, -7.23888802206463566336e+01) (9, 1.50000000000000000000e+03) (10, 1.50000000000000000000e+03) (11, 1.49981224735779528601e+03) (12, 1.50000000000000000000e+03) (13, 1.50000000000000000000e+03) (14, 1.49999987999999530075e+03) (15, 1.49999987999999530075e+03) (16, -1.49899499035800567981e+03) (17, 1.49999987999999530075e+03) (18, 1.49999987999999530075e+03) (19, 1.50000000000000000000e+03) (20, -1.31331735549577183519e+03) (21, 1.50000000000000000000e+03) (22, -7.98680239625615058685e+02) (23, 5.66215170177880963820e+02) (24, 6.16199722269984476952e+02) (25, -1.49016125332550632265e+03) (26, 1.50000000000000000000e+03) (27, -1.49650904105341282957e+03) (28, -7.47372777270180904452e+02) (29, -1.37575257314433974898e+03) (30, 1.50000000000000000000e+03) (31, 1.50000000000000000000e+03) (32, -3.24154067281959783031e+02) (33, -1.46717593660645957243e+03) (34, 1.49999987999999530075e+03) (35, 6.06067797433907600180e+01) (36, -1.45017138551671268942e+03) (37, 1.00454637309807719703e+03) (38, -1.48737885324170133572e+03) (39, 3.76641539848349054864e+02) (40, 5.50852267376910845087e+02) (41, -1.21223851876336721034e+03) (42, 1.50000000000000000000e+03) (43, 8.00275417349171402925e-01) (0, -2.96593321414726744933e+02) (1, 1.47684996389951243145e+03) (2, 8.46654815717549746878e-01) (3, -1.50000000000000000000e+03) (4, -1.50000000000000000000e+03) (5, 4.74321369067491161786e+02) (6, -1.38425439373683070698e+03) (7, -9.68053991676408827516e+02) (8, -9.25384607045581333296e+01) (9, 1.50000000000000000000e+03) (10, 1.50000000000000000000e+03) (11, 1.49954939364080291853e+03) (12, 1.50000000000000000000e+03) (13, 1.50000000000000000000e+03) (14, 1.49999987999999530075e+03) (15, 1.49999987999999530075e+03) (16, -1.49764811513754943917e+03) (17, 1.49999987999999530075e+03) (18, 1.49999987999999530075e+03) (19, 1.50000000000000000000e+03) (20, -1.31331327520372360596e+03) (21, 1.50000000000000000000e+03) (22, -7.98679456222052976955e+02) (23, 9.55691912253067812344e+02) (24, 9.01157339639857354996e+02) (25, -1.49014416594254316806e+03) (26, 1.50000000000000000000e+03) (27, -1.49031051330225659513e+03) (28, -5.50464554112705513944e+02) (29, -1.35287226442166320339e+03) (30, -7.12471962835905515021e+02) (31, 1.50000000000000000000e+03) (32, -3.24150922858866749721e+02) (33, -1.47043887991214023714e+03) (34, 1.49999987999999530075e+03) (35, 6.44284522527589729179e+01) (36, -1.45017138551671268942e+03) (37, 1.00830716219751491280e+03) (38, -1.48807120063747265704e+03) (39, 6.22488291359167419614e+02) (40, 1.03154986472033655787e+02) (41, -1.21223838177765219370e+03) (42, 1.50000000000000000000e+03) (43, 7.75705142926427893002e-01) (0, 9.07984833110456406757e+02) (1, -1.18055601195713461493e+03) (2, -3.18762483637022420169e-01) (3, 1.50000000000000000000e+03) (4, 1.50000000000000000000e+03) (5, -1.61017621432323437602e+02) (6, 1.48515723811294014922e+03) (7, 1.49878402134298471537e+03) (8, 1.95244072402861576165e+02) (9, -1.48670737814937047006e+03) (10, -1.50000000000000000000e+03) (11, -1.49801733197655971708e+03) (12, -1.50000000000000000000e+03) (13, -1.50000000000000000000e+03) (14, -1.48086521641237641234e+03) (15, -1.48167580580362982801e+03) (16, 1.49972057151765784511e+03) (17, -1.47954958845741634832e+03) (18, -1.46103661976523517296e+03) (19, -1.50000000000000000000e+03) (20, 1.45153184119221623405e+03) (21, -1.50000000000000000000e+03) (22, -1.98261398510406849027e+02) (23, 1.25645239161696281371e+03) (24, -8.47145995960462983021e+02) (25, 1.49992107981300978281e+03) (26, -1.50000000000000000000e+03) (27, 1.49911297792639766158e+03) (28, 9.90301314754514123706e+02) (29, 1.45113020923390399730e+03) (30, 6.53828676725286982219e+02) (31, -1.50000000000000000000e+03) (32, -7.17835098170962623954e+02) (33, 1.49903033383068554940e+03) (34, -1.49196570214543635302e+03) (35, 1.49163925634211955185e+03) (36, 1.48715256659076908363e+03) (37, -8.94658959381149088586e+02) (38, 1.49992897156547951454e+03) (39, -9.31564955891771887764e+02) (40, 3.80043718875556521652e+02) (41, -1.44215521732795059506e+03) (42, -1.50000000000000000000e+03) (43, -3.90382968520647799515e-01) (0, -5.05407496088935115353e+00) (1, -1.37681300552837182494e+00) (2, -4.94060431835272817480e-01) (3, 2.04584194758760551380e+00) (4, 5.03633160379013816055e+02) (5, 3.88856460377430380504e+02) (6, -5.02913405802015844870e+00) (7, 1.96880561441425392388e+01) (8, -6.89848972670298099530e-01) (9, -2.76415679650011902879e-01) (10, -1.59682287982043575880e+01) (11, 1.39917296354851913520e+02) (12, -3.11939949399673531472e-02) (13, -5.02060818730759308437e+01) (14, -9.82293964130992680595e-01) (15, -4.35198010477915353533e+00) (16, 6.30475492594302551197e+01) (17, -1.77318414110604538614e+00) (18, -2.31201775915675034057e+00) (19, -6.00218073788634924881e+01) (20, -6.24999289102624288716e+02) (21, -1.40784006974677322610e+00) (22, 8.85815382743845361802e+02) (23, 4.51382549074734356509e+02) (24, -2.19271362221718177921e+01) (25, -1.30015715820273292103e+00) (26, 9.21097154825996682348e+01) (27, -1.28179683266496795113e+02) (28, 1.87578183867179539845e+01) (29, -7.31848558779341544778e+01) (30, 6.76965252212791256170e+02) (31, -1.18279427416915808635e+02) (32, -2.70450823683346015969e+02) (33, 4.67185998966177393754e+01) (34, -6.24145666869431821056e+01) (35, 2.23358573702363145230e+02) (36, 1.63693506954181998481e+02) (37, -2.71737239844551254464e+02) (38, -2.54786227269908245319e+01) (39, -3.50466103968757977327e+02) (40, -1.45688686954892645531e+01) (41, -1.63094712431324921909e+02) (42, -2.57868354982717050916e+02) (43, -4.28809147220087838459e-01) (0, 8.51481918088344613693e+00) (1, 4.66833535955949230356e-01) (2, -2.95078740443424580864e-01) (3, 1.48701851629220396234e+01) (4, -1.04639590029300535434e+02) (5, 3.55548560151797857998e+02) (6, 6.32348034964824901039e+00) (7, -2.91041480740733105037e+00) (8, -3.42691614849386316788e-01) (9, 1.58369588065122551823e-01) (10, -1.36756076590702466689e+01) (11, 5.18165659593230074620e+01) (12, 4.57831065639642043053e-01) (13, -7.69630580023849688587e+01) (14, -5.37601929820901824897e-01) (15, -1.44164742236025311684e+00) (16, 9.65981618043463896583e+00) (17, -1.07992002992655145022e+00) (18, -1.19014814204199015357e+00) (19, -1.50000000000000000000e+03) (20, -7.63755388194304146054e+02) (21, -1.49998251265340945793e+03) (22, 1.23248146677995509890e+03) (23, 1.45339559605085719340e+03) (24, -6.74306470441284488970e+00) (25, -1.31617786246337573175e+02) (26, 1.41477820018916702338e+02) (27, -2.96341367128970034628e+01) (28, 1.60273586787243885965e+02) (29, -1.03017352068605987370e+03) (30, 1.49147434662668342753e+03) (31, -9.40010859983722070865e+02) (32, 1.49298157121778012879e+03) (33, 2.48954564471853501573e+02) (34, -8.33132268825741419960e+01) (35, 3.91498169885146239722e+02) (36, 1.49997078376868262239e+03) (37, -4.07622317009305788815e+02) (38, -1.48616080746696025017e+03) (39, 1.45801268728359696070e+03) (40, -1.43801973635983063105e+03) (41, -1.39525517266285783080e+03) (42, -1.27267904391231377303e+03) (43, -3.80692651323853548107e-01) (0, -9.49646084929786304940e-01) (1, -5.49308354811373425464e-02) (2, 5.40689622030541897080e-02) (3, -2.75899708546091204653e+00) (4, -7.26895128954258638032e+01) (5, 7.94017679021991682475e+01) (6, 2.68335805455774867312e+00) (7, 3.60481884457549972556e-01) (8, 3.14373396013357453427e-01) (9, 3.68143720187533607380e-01) (10, -9.53335283191092841548e+00) (11, 1.53112772971370372233e+01) (12, -7.44160977358218483912e-02) (13, -1.36110994590695781881e+01) (14, 1.46310246958719775145e-02) (15, -3.34132943949195171385e+00) (16, 2.92284096012495142602e+00) (17, -9.38708524415413081421e-01) (18, -1.71846862007842871023e+00) (19, -4.04885206785930620299e+01) (20, -1.54171327338934304407e+02) (21, -2.02278443286165598991e+00) (22, 1.91714033420264740926e+02) (23, 1.16835204302196320469e+01) (24, 1.49658498357910985099e+00) (25, -9.23331805569279673307e+00) (26, -1.07881888382408153149e+01) (27, 2.08854540882534900348e+00) (28, 1.88134897483643359628e+00) (29, -1.04470864207912512711e+01) (30, 3.29360185591240508529e+02) (31, -1.13852829897924952007e+01) (32, 1.16115839264698834654e+02) (33, 1.52979446313846167982e+01) (34, -3.11764517989474363446e+01) (35, -1.56952225455964679668e+02) (36, 1.12171743510398513877e+02) (37, 1.24964499838797085118e+01) (38, -8.30873320642452561913e+00) (39, -5.08103247309501639961e+01) (40, -3.94942966228785792282e+01) (41, -1.18084976373803840488e+00) (42, -2.21853156887177611623e+01) (43, 6.89129926275161563964e-02) (0, -3.39425301657812781286e+02) (1, -2.06285581801898487697e+01) (2, 6.09606084630683886516e-01) (3, 1.50000000000000000000e+03) (4, 1.50000000000000000000e+03) (5, 1.49993031184374854092e+03) (6, 1.48511836017383348008e+03) (7, 4.15893663283692092136e+02) (8, 5.50773462463909027065e+02) (9, -3.12429164973800936878e+02) (10, -1.50000000000000000000e+03) (11, -1.24222447170153054685e+03) (12, -1.48574873226644763236e+03) (13, -1.49999981999999295113e+03) (14, -2.03749009142646553272e+00) (15, 7.74701092389799669036e+02) (16, 1.49992617244806433519e+03) (17, 7.05907866051949355324e+01) (18, 2.58242875801019920345e+02) (19, -1.48917204937458677705e+03) (20, 2.81258712561035451927e+02) (21, -1.49736705402531219988e+03) (22, 7.21986394514942730893e+02) (23, 9.00435027587549029704e+02) (24, 5.30340995803838168854e+01) (25, 1.49994707756440266166e+03) (26, -1.50000000000000000000e+03) (27, 1.49921677426382780141e+03) (28, 8.21406884518869560452e+02) (29, 1.41621792170433286628e+03) (30, 1.49860012124878494433e+03) (31, -1.48976150703976173872e+02) (32, 1.49995741185190900069e+03) (33, 1.49960175878880295386e+03) (34, -1.49449644639628786535e+03) (35, -8.94652227154211232119e+02) (36, 5.45441522625380002864e+02) (37, -8.53908926350971455577e+02) (38, 1.49992343952875467039e+03) (39, -1.42538001730140126710e+03) (40, 8.57250879387785516883e+02) (41, 3.70587827485494756274e+02) (42, -1.49999981999999295113e+03) (43, 4.44921186131564949662e-01) (0, -1.42506242522489756652e+00) (1, -5.54079794257811464320e+00) (2, 2.02964476355705719657e-01) (3, -5.19845515550950931782e+00) (4, -1.58195901058997549171e+02) (5, 1.04202691291461547962e+02) (6, 3.48861477319105306449e+00) (7, 5.90711826209180124181e+00) (8, 1.21396015560042536130e-01) (9, 5.77470709196810094710e-01) (10, -6.26682598864629269997e+00) (11, 6.83217175598149140114e+01) (12, -6.23082256647899068724e-01) (13, -2.88878482072024382887e+01) (14, -2.83935073862837616954e-01) (15, -1.88392072103188912280e+00) (16, -1.33779298839743336913e+01) (17, -5.30850504622525143361e-01) (18, -5.82601202649301375125e-01) (19, -1.29460770077701567971e+03) (20, -1.99431460398895666231e+02) (21, -6.30055024480845702328e+01) (22, -7.52271769458647440842e+02) (23, 1.49993567465812839146e+03) (24, 3.57942652325484758080e+01) (25, -1.10958538414339415112e+02) (26, -5.92549942499530502005e+01) (27, -1.02260475361410172468e+01) (28, 1.19625066518714966435e+01) (29, -1.13849253857180588057e+03) (30, 1.49991441207275920533e+03) (31, -1.49998532215619593444e+03) (32, 1.49092293465424654642e+03) (33, 3.56977770407903634009e+01) (34, -5.51896937218907481792e+01) (35, -4.59609804505773098526e+01) (36, 1.49625766676657917742e+03) (37, -1.07982919186052686200e+03) (38, 1.49985842016338006033e+03) (39, 5.09052352639904540865e+02) (40, -2.54809637438707710544e+02) (41, -2.60791011997528585198e+02) (42, 1.18899459515356033990e+03) (43, 1.76057687363287557192e-01) (0, 1.41513299986736842584e+03) (1, -1.18054111667693791787e+03) (2, 6.36452008793703560841e-01) (3, 1.50000000000000000000e+03) (4, 1.50000000000000000000e+03) (5, -1.60654936929264920309e+02) (6, 1.48515950377544982075e+03) (7, 1.49878455688866642959e+03) (8, -3.66991363796649423534e+01) (9, 1.49860118611619805051e+03) (10, -1.50000000000000000000e+03) (11, -1.45892197189970192994e+03) (12, -1.50000000000000000000e+03) (13, -1.50000000000000000000e+03) (14, 1.49989951825492380522e+03) (15, 1.49988333273637476850e+03) (16, 1.49972970082841652584e+03) (17, 1.49943441829929224696e+03) (18, 1.49992164407736640896e+03) (19, -1.50000000000000000000e+03) (20, 1.45153184119221623405e+03) (21, -3.29831895749166733367e+02) (22, -1.49176748159702788143e+03) (23, 1.43704884417469747859e+03) (24, -5.42999986740679105424e+02) (25, 1.49992390795715095919e+03) (26, -1.50000000000000000000e+03) (27, 1.49911354171633252008e+03) (28, 1.07069938326710234833e+03) (29, -1.38987831970074398669e+03) (30, -1.50000000000000000000e+03) (31, -1.50000000000000000000e+03) (32, 1.49903228706438881090e+03) (33, 1.49903086937636726361e+03) (34, -1.49157042278549238290e+03) (35, 3.82447901866016877648e+02) (36, 1.48715256659076908363e+03) (37, 9.96573034608670354828e+02) (38, 1.49992897156547951454e+03) (39, 6.40261336296436184057e+02) (40, 1.50000000000000000000e+03) (41, -1.25948556976313761879e+03) (42, -1.50000000000000000000e+03) (43, 7.04544527798463660062e-01) (0, -7.30032916946076504416e+00) (1, -2.87123647948519922224e+00) (2, -5.24150492933426526143e-01) (3, 2.21261866296274831711e+01) (4, -1.49151070924484457692e+02) (5, 8.95101354818562981563e+02) (6, -1.00264256151593400546e+01) (7, 1.36837784562463546933e+01) (8, -5.37080981759812670084e-01) (9, -2.57388119554790573140e-01) (10, 6.31002292010483998297e+01) (11, 1.48668089881762757187e+01) (12, 4.92694594721910128499e-01) (13, -3.94632910953056139647e+01) (14, -3.13263486103031008057e-01) (15, -5.87193441198510424073e+00) (16, 1.06440113885611697953e+01) (17, -7.59584123919580522788e-01) (18, -1.78961844129652747348e+00) (19, 1.49981966134930803491e+03) (20, -7.06363531789230705726e+02) (21, 1.49999907359994222134e+03) (22, -1.49465374009498896157e+03) (23, -1.05515505956690299172e+03) (24, -1.19142641052020152870e+01) (25, -2.10975946722056235672e+01) (26, 1.36991263444211455180e+02) (27, 4.36133174956216649321e+01) (28, 2.50755859732782973026e+01) (29, -1.49742692024277948804e+03) (30, -1.42210949568461023773e+03) (31, 1.49999897966025582718e+03) (32, -3.86499152827871455429e+02) (33, 4.20812695183682876632e+01) (34, -4.64359721637897493451e+01) (35, -9.41435464481404096659e+02) (36, -1.47402418207511027504e+03) (37, 1.48230248958269089599e+03) (38, 1.47581217211619855334e+03) (39, -1.45045722346881279918e+03) (40, 1.49767699668075238151e+03) (41, 1.49904510730489437265e+03) (42, 1.49999830027751477246e+03) (43, -5.54613309582305924472e-01) (44, -1.78208097697374667767e-01) (45, -6.89056281044591045770e-02) (46, 2.40528501548421452805e-01) (47, 8.61582049206953026754e-01) (48, 5.56522956761815734694e-01) (49, 2.84397476758395273411e-01) (50, 4.55475478978185410739e-01) (51, 5.42085385216139692410e-01) (52, 2.85829434345560920439e-02) (53, -4.95996479469436424292e-01) (54, 4.23556670848079797054e-01) 
