FANN_FLO_2.1
num_layers=3
learning_rate=0.700000
connection_rate=1.000000
network_type=0
learning_momentum=0.000000
training_algorithm=2
train_error_function=1
train_stop_function=0
cascade_output_change_fraction=0.010000
quickprop_decay=-0.000100
quickprop_mu=1.750000
rprop_increase_factor=1.200000
rprop_decrease_factor=0.500000
rprop_delta_min=0.000000
rprop_delta_max=50.000000
rprop_delta_zero=0.100000
cascade_output_stagnation_epochs=12
cascade_candidate_change_fraction=0.010000
cascade_candidate_stagnation_epochs=12
cascade_max_out_epochs=150
cascade_min_out_epochs=50
cascade_max_cand_epochs=150
cascade_min_cand_epochs=50
cascade_num_candidate_groups=2
bit_fail_limit=3.49999999999999977796e-01
cascade_candidate_limit=1.00000000000000000000e+03
cascade_weight_multiplier=4.00000000000000022204e-01
cascade_activation_functions_count=10
cascade_activation_functions=3 5 7 8 10 11 14 15 16 17 
cascade_activation_steepnesses_count=4
cascade_activation_steepnesses=2.50000000000000000000e-01 5.00000000000000000000e-01 7.50000000000000000000e-01 1.00000000000000000000e+00 
layer_sizes=3 11 2 
scale_included=0
neurons (num_inputs, activation_function, activation_steepness)=(0, 0, 0.00000000000000000000e+00) (0, 0, 0.00000000000000000000e+00) (0, 0, 0.00000000000000000000e+00) (3, 4, 5.00000000000000000000e-01) (3, 4, 5.00000000000000000000e-01) (3, 4, 5.00000000000000000000e-01) (3, 4, 5.00000000000000000000e-01) (3, 4, 5.00000000000000000000e-01) (3, 4, 5.00000000000000000000e-01) (3, 4, 5.00000000000000000000e-01) (3, 4, 5.00000000000000000000e-01) (3, 4, 5.00000000000000000000e-01) (3, 4, 5.00000000000000000000e-01) (0, 0, 0.00000000000000000000e+00) (11, 6, 5.00000000000000000000e-01) (0, 6, 0.00000000000000000000e+00) 
connections (connected_to_neuron, weight)=(0, 4.63154829860696271027e+00) (1, -2.10467632079165634096e+00) (2, -3.88788956857166700942e+00) (0, 3.45074627079977691579e+00) (1, 2.75403489802644196871e+00) (2, -3.57880930652787787594e+00) (0, -6.11294976487956098765e+00) (1, -2.23141585073730368549e+01) (2, -1.09968088577652589599e+00) (0, -2.58459330920259056086e+00) (1, -3.99828639316705647389e-01) (2, 3.81595665481458246049e+00) (0, -5.32829999727089553829e-01) (1, -1.07016019591932387556e+01) (2, 2.31533375402844354696e+00) (0, 5.07095328748774720751e-01) (1, 1.12013379800050056900e+01) (2, -7.97833719875274294253e-01) (0, 3.42582317718281448293e+00) (1, 2.77487981949613038424e+00) (2, -3.59569222902824980892e+00) (0, 4.37266151686037041202e+00) (1, 2.76711238058031083753e+00) (2, -4.40028512334714605458e+00) (0, 3.68071460240993308943e+00) (1, 2.64635110850703991758e+00) (2, -3.53789420211287097828e+00) (0, 4.06128958289408092952e+00) (1, 6.22320136800430478985e+00) (2, 2.93472456467099496180e+00) (3, 1.03111289827754735171e+01) (4, -4.30843405834370063445e+00) (5, -2.20848336227604180593e+00) (6, -3.90894994373596094128e-01) (7, -2.14208845014970927778e+00) (8, 1.11361792057892139418e+00) (9, -2.31822174320497520483e+00) (10, -5.22623663978270336372e+00) (11, -2.37668637307749586185e+00) (12, 5.54342525176050671121e+00) (13, -1.77499779817743730259e-01) 
